svm_type nu_svc
kernel_type precomputed
nr_class 5
total_sv 610
rho -0.213499 -0.0576673 0.099537 -0.348371 0.429324 0.611395 -0.319691 0.506928 -0.884791 -0.900794
label 1 2 3 4 5
nr_sv 129 97 107 131 146
SV
0.06671949869848912 0.04808584027156216 0.1179975957698751 0.09460250449958602 0:2 
0 0 0.04858595781402068 0 0:3 
0 0.0472886188444577 0.5343204494548089 0 0:4 
0 0 0.0566626961696965 0 0:5 
0.1497614852560409 0.185900919279511 0.2693650178557132 0.1381131035229186 0:6 
0 0 0.02245812529392141 0 0:7 
0.1684295390747255 0.267500884787806 0.1574741878449346 0.2162807338174739 0:8 
0.3897018508146202 0.6234341749584127 0.6208432237525848 0.2395346528938115 0:9 
0.1633209064396514 0.286787577191851 0.4944319185895618 0.1560959918103894 0:10 
0 0 0.09511984540605593 0 0:11 
0 0 0.3689880965892132 0 0:12 
0.06775481688012328 0 0.1289210787922608 0.1102096307436019 0:13 
0 0 0.100646414382879 0 0:14 
0 0 0.1788183468615289 0 0:15 
0 0 0.1161275826071068 0 0:16 
0 0 0.1729971032993788 0 0:17 
0 0 0.09346601246828215 0 0:18 
0 0 0.197823189338095 0 0:19 
0 0 0.908034046533891 0 0:20 
0 0 0.08791449014861659 0.0435358453954065 0:23 
0 0 0.1364483072745934 0 0:24 
0.1774325538952793 0.08331148001668273 0.5618610126575359 0.2386838398764016 0:25 
0 0 0.02993965575154129 0 0:26 
0 0 0.1116396815139644 0.06112089364295017 0:27 
0.04377559488974869 0.001350229520290842 0.2504354041995443 0 0:28 
0.3897018508146202 0.6303660120030045 0.7829829410928441 0.2395346528938115 0:29 
0.06458159571841039 0 0 0 0:31 
0 0 0.613658271922757 0 0:32 
0.01218219978096691 0.04596497233740706 0.176169591846886 0.02599094908390377 0:33 
0 0 0.4670616326032362 0 0:35 
0 0.1484366168027944 0.4141444494460236 0.1412639086347443 0:36 
0 0 0.2168849091872652 0 0:37 
0 0 0.1473131157120569 0 0:38 
0.1236170092268105 0.06646669188466102 0.108663128909253 0.09578484025037749 0:40 
0.3897018508146202 0.6316075836587473 0.3496371364629603 0.2395346528938115 0:41 
0 0 0.1435103428842966 0 0:42 
0 0 0.1633493135600789 0 0:43 
0 0 0.07788259222656475 0 0:44 
0 0 0.05047853335043457 0 0:46 
0 0 0.2459410422630834 0 0:48 
0 0 0.3448730741221852 0 0:50 
0 0.007415665314472248 0.009853735198546534 0 0:52 
0 0 0.7435266704115797 0 0:53 
0 0 0.2591386644273547 0 0:54 
0.03248257148889303 0.06285605385037955 0.08468379215440669 0.05827546473353884 0:56 
0.2411491035504236 0.3578648160996747 0.381456000845726 0.1998700235186905 0:57 
0 0 0.3909231387189735 0 0:58 
0 0 0.3066737835202193 0 0:59 
0.1989570253694892 0.4050578180404755 0.3284407741389653 0.2395346528938115 0:60 
0.3204893175956723 0.3396752822219772 0.1738114558817209 0.2395346528938115 0:61 
0.02541638126642304 0.08355700208828626 0.1674408365986287 0.08051352967897554 0:62 
0 0 0.1615672605945848 0 0:63 
0 0.0605726580106201 0.2052778053292341 0.0552773757135126 0:64 
0 0 0.5623797045590648 0 0:65 
0 0 0.03523618842898556 0 0:67 
0.1248519278559808 0.2440178775653554 0.5240355619303884 0.2131585932184261 0:68 
0.05128133868071889 0.02487034332579618 0.3754801123168259 0.2395346528938115 0:69 
0 0.2253637010449966 0.1304185874737935 0.1466898552675595 0:72 
0 0 0.3785496743535611 0 0:73 
0.1666374363160821 0.08947027735835573 0.4448411026526316 0.05227588308494975 0:74 
0 0 0.0101395191224068 0 0:75 
0 0 0.2397114266674297 0 0:76 
0 0 0.2603583588638637 0 0:77 
0 0 0.04945041051948961 0 0:78 
0 0 0.06171795890803047 0.006066972994047968 0:79 
0 0 0.3165067028496616 0 0:81 
0 0 0.09140614285049735 0 0:83 
0.1295236352102474 0.1114590223260454 0.3014731575739711 0.1781725063348804 0:84 
0 0 0.1259390857424442 0 0:85 
0 0.01344807005394867 0.3226119752699587 0.02545574839053067 0:86 
0.1006865412280244 0.2367855967539133 0.5689300693304297 0.07095279518586919 0:87 
0 0 0.2675459860471611 0 0:88 
0 0 0.07648006953442407 0 0:90 
0.3102853941931274 0.4396396226135713 0.8192398809113017 0.2395346528938115 0:92 
0.05740230818851504 0.03559451508270786 0.523470090593427 0 0:94 
0 0.03055003500809349 0.4333855187705171 0.1617781909278039 0:95 
0.1226243717584234 0.05973535279515232 0.1686813520173486 0.07789428782514214 0:96 
0.3897018508146202 0.4133023817960787 0.4509369832892304 0.2395346528938115 0:97 
0 0 0.001462260575178738 0 0:98 
0 0.07556175133810046 0.2852910327541931 0.0143096158658506 0:102 
0 0 0.1305496557578553 0 0:105 
0 0 0.1492690210759932 0 0:106 
0 0 0.3712809975964281 0 0:107 
0.07277620709981136 0.2727892575612212 0.01831111423823564 0.2395346528938115 0:109 
0.2717835505351364 0.5159921544231471 0.8673290871358327 0.2395346528938115 0:110 
0.05655624212605593 0 0.1027231767948083 0 0:111 
0 0 0.1887407278053587 0 0:112 
0 0 0.1394277890658419 0 0:113 
0 0 0.1622591857318603 0 0:114 
0 0 0.1149933434775308 0 0:115 
0 0 0.2458501008659272 0 0:117 
0 0 0.16759080663348 0.06995067289999793 0:118 
0 0 0.005030299469440294 0 0:119 
0 0 0.07550199003218709 0 0:120 
0 0 0.28594687775422 0 0:121 
0 0 0.04228672866943301 0 0:122 
0 0 0.2700521222930961 0 0:123 
0 0 0.2243472862051686 0 0:124 
0.3423902123126579 0.5556818287653875 0.5729372747975494 0.2395346528938115 0:125 
0 0 0.1031031328430291 0 0:128 
0.3056814519540105 0.4974231595414743 0.4327205208763744 0.2395346528938115 0:129 
0 0 0.3648736427796546 0 0:130 
0 0 0.102537223721809 0 0:131 
0 0 0.05237493929691369 0.01539507818031742 0:134 
0 0 0.05285395325308408 0 0:135 
0 0 0 0.004406246218095369 0:138 
0 0 0.07126918841175904 0 0:139 
0 0 0.08397817370564782 0 0:140 
0.006522455278390281 0 0.04827113119520453 0 0:142 
0.1399990068563655 0.1353604448255012 0.4191236353002211 0.1479168081305603 0:143 
0 0.01141510637628035 0 0 0:144 
0 0 0.05130282331687615 0 0:145 
0 0 0.148816573932307 0 0:146 
0 0 0.2879460767894741 0 0:147 
0.04232870043658383 0.3263052236390925 0.26814356386001 0.1880292999695572 0:150 
0 0.02425254277486532 0.2574239644768879 0.06451907407234361 0:152 
0 0 0.02062217902253667 0 0:155 
0 0 0.334803104266099 0 0:157 
0.05122364195119963 0.04878360655298561 0.8412909065192011 0.1106562318698503 0:158 
0 0 0.2864822399580149 0 0:159 
0 0 0.2972372963621472 0 0:160 
0 0 0.2640515872027294 0 0:161 
0.1377993417284998 0.2824661695433278 0.6299749699014217 0.2395346528938115 0:162 
0.1936031991493487 0.4318599889209385 0.5038745245300869 0.2395346528938115 0:163 
0.3897018508146202 0.6275626690916121 0.8095334018568514 0.2395346528938115 0:164 
0 0 0.1600353068291607 0 0:165 
0 0.0556905006448086 0.2579516707371056 0.04233171457634524 0:166 
0 0 0.009051966107993841 0 0:167 
0 0 0.04049919939567744 0 0:168 
-0.1360195029960058 0.2408426493672696 0.2963785385718296 1.155687909291441 0:171 
-0 0.2101732349130006 0 0.0308345436498858 0:172 
-0.08142559060664563 0.5363566087151956 0.1320283948585248 0.6732166797535625 0:173 
-0 0 0 0.05604319107468501 0:174 
-0.07671835319922216 0.1978051250629239 0 0 0:175 
-0 0 0 0.004095212666150799 0:176 
-0.1638389320448844 0.3036855943950262 0.2101650148844297 0.4888585405526742 0:178 
-0 0.2317227086153925 0 0.581800970820468 0:179 
-0.07220633939004203 0.2631941303697177 0.01944584236139435 0 0:180 
-0 0 0 0.0005253708908395223 0:182 
-0.2275917948812807 0.6195259201913462 0.5133720908828966 0.6195125105842417 0:183 
-0.3897018508146202 0.6054941277692238 0.6373683995410843 0.8459398100268793 0:184 
-0.1615894777527889 0.467159081467019 0.3481391625494889 0.4390522207705167 0:185 
-0.2759382178007705 0.5204827651054595 0.5053693280612388 0.3434613032779348 0:186 
-0.3385192185650646 0.5971726231576653 0.6485913164650036 0.4787021788033987 0:188 
-0 0 0 0.5473354029951027 0:189 
-0 0 0 0.06538971007181787 0:191 
-0.1855644196525622 0.5862892656755572 0.1639617755069652 0.4971020788143928 0:193 
-0 0 0 0.03158809760050486 0:194 
-0.2735258418806698 0.8540986856542329 0.4978403182329451 1.036051078394224 0:195 
-0 0 0 0.900304069837688 0:196 
-0.01305531557548188 0 0.1492562913544918 0.1683551275385163 0:197 
-0.0594260179895429 0 0 0.4892926940145858 0:198 
-0.2331489353170415 0.903108503057277 0.465143600010917 0.4984740860803239 0:199 
-0.1195751918994858 0.153839872136656 0.04969678043891567 0 0:200 
-0 0.0865265463077414 0.2096233952032978 0.4185353857310782 0:201 
-0 0.1979984341212829 0 0.932711127261495 0:202 
-0 0.2093750275810207 0 0.6659312940267504 0:203 
-0.0444337636900616 0.1550305003780017 0.131046500247895 0 0:204 
-0.08260302639343867 0.2050597988727258 0.2322492591925251 0.07712867289789765 0:205 
-0.162541829046603 0.3145512875193032 0.1996547768117296 0.8136951398674698 0:207 
-0 0 0 0.2964547209248482 0:208 
-0.1332294697584146 0.005307235982252736 0.2942962577574934 0 0:209 
-0.3598034868492254 0.881246433613319 0.4959793015810899 0.7221671337641993 0:210 
-0.1489550814109873 0.509902384424663 0.3932103630731378 0.5400345143286347 0:212 
-0 0.02686328743867161 0.06125244715471333 0 0:213 
-0.234870723928785 0.5809532382328265 0.5792199662978155 0.5666294589160552 0:214 
-0.106903317369146 0.3232909319561699 0.2575998671098497 0.4720570366572404 0:216 
-0.006701673588231755 0.3097370378655097 0.2103088182738738 0 0:217 
-0 0 0 0.6299720709848111 0:218 
-0.09442788163418914 0.5117178242697612 0.3201943133614797 0.7758965987242222 0:219 
-0.004546969378160522 0.3796726955197668 0.118919063466797 0 0:220 
-0 0 0 0.7978975843136984 0:221 
-0 0 0.01265573317873056 0.7796081533128588 0:226 
-0 0.05448462084682877 0 0 0:227 
-0.02177773893626228 0.5293255597876543 0.352894707562228 0.6947004645244701 0:230 
-0 0.06441235940853075 0 0 0:231 
-0.08562742104686745 0.214415123823463 0.2894259800780262 0.3511565871054915 0:233 
-0 0.01010001318986001 0.06300775841614091 0.08399294545194523 0:234 
-0 0 0 0.7097458300078383 0:235 
-0 0.03058955520654893 0 0.1584134221380964 0:236 
-0.09671546475922888 0.3969674669027759 0.1951705808723432 0.4345227480355211 0:239 
-0.005057894312189407 0.571333857498219 0.03329833620938365 0 0:240 
-0.1131726663559776 0.2824461979769526 0.2671325123082168 0.02991419325885558 0:243 
-0.0985439164475998 0 0.1805552388973355 0.1901286331966573 0:245 
-0 0.1374092947790096 0 0 0:246 
-0 0 0 0.03076195153447432 0:249 
-0.1156612861822171 0.2155294080432355 0.3942664477176764 0.02030805753817348 0:253 
-0.05905179097028497 0.1065708854204065 0 0 0:254 
-0 0.133733992287282 0.1443397235263123 0.3640051109754949 0:255 
-0.1259676236982681 0.5178769671234835 0.250777560348273 0.287730273685556 0:256 
-0 0 0.09485750433561246 0.9618697271375363 0:258 
-0.09220434180528643 0.1250917160514065 0.09488251346293947 1.083723935390628 0:261 
-0.1834757641790324 0.3894979204634015 0.243026279598016 1.026797733967113 0:264 
-0.1057213151468019 0.1959134881851525 0.1346547779393562 0 0:266 
-0.02904670760113522 0.07439861832878575 0 0.1772799891932328 0:267 
-0 0 0 0.2019537653614799 0:268 
-0.1412344640593365 0.7562929837660151 0.3206922056016617 0.2169815584915919 0:269 
-0.08648666568628326 0.2761400895030406 0.2453217788192559 0 0:272 
-0 0.04268662785800185 0 0 0:273 
-0 0 0 0.02668827405019979 0:276 
-0 0 0 0.2410629840910473 0:279 
-0 0 0 0.01169286691025117 0:286 
-0.04351781733513578 0.5367572963700847 0.1042553449023309 0.5935976374156846 0:288 
-0.06814497802148692 0.259601607769484 0.03233782530047807 0.6584664821050245 0:289 
-0 0 0 0.3002005177563644 0:290 
-0 0 0 0.4286589658230104 0:293 
-0 0 0 0.3128357904637342 0:296 
-0 0 0 0.02170707265137409 0:297 
-0 0.08970490112831915 0 0.2825410060934664 0:298 
-0 0 0 0.1425360424153577 0:299 
-0 0.2281626850814228 0 0.1866957933990808 0:305 
-0.01750364041895279 0.1593312879286151 0.03411169402102265 0.003473807430354628 0:306 
-0.1527853568699498 0.1438406258210562 0.2741615585403389 0 0:307 
-0 0.02415557208346157 0 0.2242755492779715 0:308 
-0 0 0 0.005568263772976739 0:309 
-0.3199217943442558 0.7725064968538032 0.382443404362229 0.7300083762777352 0:316 
-0.1714247345701495 0.8805378848884672 0.5893459400599267 0.8362823529747637 0:317 
-0.1317602364006118 0.2498087748161999 0.01623787779425863 0.1174649148780201 0:318 
-0 0 0 0.2739874562591924 0:319 
-0 0 0 0.4128323220291955 0:321 
-0.03686997350276195 0.05170234350716443 0.08781105998998055 0.488831280357261 0:323 
-0 0 0 0.0769342376929613 0:328 
-0 0 0 0.4236282054543892 0:329 
-0 0 0.01422555540161003 0 0:330 
-0 0.2270557944240947 0.1388426215639883 0.6150222135468316 0:331 
-0 0.06164800021077481 0 0 0:332 
-0.1535208534818472 -0.683075866847493 0.5404352122939201 0.3920948058493959 0:334 
-0.2298312551910688 -0.2028003879035377 0.3866241142093485 0.502090772253295 0:335 
-0.1004944025185306 -0 0.1094608907694485 0.1013141596742253 0:336 
-0.02329143733239406 -0.2246187764745903 0 0 0:337 
-0.09550949894721893 -0 0.1187189926649342 0 0:338 
-0.02898053503730571 -0 0.2868348725982585 0 0:339 
-0.1973707446526202 -0.2309024260237379 0.16246293070121 0.009413631630488525 0:340 
-0.02800747174390621 -0.534085265144379 0.08836666030373694 0.6641270657145099 0:341 
-0 -0.2128891232748722 0.1472076495610079 0.2356986451645268 0:342 
-0 -0 0.2174027087722794 0 0:343 
-0.2420425694327706 -0.1777692946985613 0.1860426795011739 0.1917549545997545 0:344 
-0 -0.1093416734061766 0 0 0:345 
-0.08390459968763458 -0.1676441456824503 0 0 0:346 
-0 -0.05552534445483914 0.2114669591907312 0.03786568364839049 0:348 
-0.3301401390693754 -0.6343761151339955 0.5387200639292046 0.7859426265185484 0:349 
-0.01702026127101073 -0.1828127566041304 0 0.1250675789614619 0:350 
-0.2036203005883705 -0.06628843705623108 0.6364022301816213 0.3907278539618467 0:351 
-0.04132534076263297 -0.02861062923797626 0.1492969666492066 0 0:352 
-0 -0.2355599029718622 0.06763243068804209 0.1055477399868949 0:353 
-0 -0.2700060840502089 0.01754130262139705 0.314006754824203 0:355 
-0.07559837467114126 -0.3664095195431907 0.3450511857873987 0.4114423116108807 0:356 
-0.02126773158470738 -0.3904126505725547 0.04586549166450783 0.1965200616581692 0:358 
-0.25447154740691 -0.07516898418662331 0.4487296593175645 0.2852329958076315 0:359 
-0.2933998484795385 -0.09832291703163841 0.4682580371360827 0.1400320017936157 0:360 
-0.01607316264566132 -0 0.01417207969948015 0.04962808516302241 0:361 
-0.5194563052964013 -0.7287928440724196 0.6557461770333494 0.7859426265185484 0:362 
-0.1216285837738558 -0.4114401539465995 0.5035929123460791 0.4692683205004528 0:363 
-0.08074865382767209 -0 0.1639614650274294 0 0:364 
-0 -0 0.04521983891156738 0.1167824520698161 0:365 
-0 -0.0335600403196157 0.3462390713544956 0.2418920938408122 0:366 
-0.3775236873345014 -0.4862711285451254 0.4147989721039558 0.1483092356625594 0:367 
-0 -0.09555228996243154 0 0 0:368 
-0.03655545932167997 -0 0.07188835828205192 0.3411922293730408 0:369 
-0.1424736929299052 -0.7556430757002269 0.5105658152371512 0.669572801721494 0:370 
-0.07591403804904941 -0.2379598635793877 0.4128137306179332 0.25020629438813 0:371 
-0.05462093000972956 -0 0.3470883358979411 0.1535438831862285 0:372 
-0.3776765681106439 -0 0.5115928506511987 0.2022967828106695 0:373 
-0.01714821184484222 -0.04661496826888395 0.03270479337398765 0 0:374 
-0.4339948251524988 -0.2517460388216683 0.8177652998715336 0.2248499479925972 0:375 
-0 -0.4126364770311319 0.3300243835469731 0.2426044190094103 0:376 
-0.1181708365988337 -0.9071377283874734 0.8924348427761484 0.7859426265185484 0:377 
-0 -0.03655942690402163 0.1843457262952826 0.02862985025572523 0:378 
-0 -0.1148697673160424 0.1668254547000101 0.296086106048324 0:379 
-0.1262066505011457 -0 0.2521238858682254 0 0:380 
-0.1096113495052171 -0.03356113280243996 0.2955962956647046 0.1695115422657843 0:381 
-0 -0.01515262748629575 0 0 0:382 
-0.167241777705183 -0.5996298497861288 0.4857855752818169 0.7859426265185484 0:383 
-0.471136026991717 -0.2902478905793205 0.5602720041185536 0.3551493625166472 0:384 
-0 -0 0.06240202947343564 0.005231704853101263 0:385 
-0.1813489154734543 -0.1403682862641794 0.2950480887967846 0.2020937685222907 0:386 
-0.3429881021055844 -0.1172811793011597 0.4366624541294306 0.1147502645000243 0:387 
-0.1457271995455671 -0.7718281620079649 0.2976192584372933 0.679895685469476 0:389 
-0 -0.111296751982498 0 0.01667915523989946 0:390 
-0 -0.1040646153250172 0 0.3166004484765793 0:391 
-0.1242828203477845 -0.3620070560858566 0.3371079157920499 0.06517802609775321 0:393 
-0.1936675928353954 -0.3655105928849068 0 0 0:394 
-0.1519616762806306 -0.6315323697169634 0.6769706042586684 0.7373326548983605 0:395 
-0 -0.2572363738052056 0 0.07187592376068316 0:396 
-0 -0 0.1603003291758486 0 0:398 
-0 -0 0.04721597339829866 0.1610115550459884 0:399 
-0 -0.1530885144248067 0.2187974666919883 0.0859746302165124 0:400 
-0.2525365847571021 -0.512816785026323 0.4812529006553671 0.7859426265185484 0:403 
-0 -0 0 0.3026460246677731 0:404 
-0 -0.1501103404996328 0 0 0:405 
-0.1107514442093142 -0 0.3283253742832907 0.04242104460052465 0:406 
-0.08238725827792337 -0 0.2582151754646994 0 0:407 
-0 -0 0 0.2100466407687326 0:408 
-0.1792372828581679 -0.08125230061364856 0.2744640787295059 0.2201368866801625 0:409 
-0 -0 0.005173581810966922 0 0:410 
-0 -0 0.01876018650264435 0 0:412 
-0 -0.007981119959029901 0 0.0531114068380486 0:413 
-0 -0 0.1085224571464207 0.3710482498669798 0:414 
-0.002980641080046226 -0 0.286540842255214 0.006965036681278894 0:416 
-0.08701793278674624 -0 0 0 0:417 
-0 -0 0.04380356245526325 0 0:419 
-0.001862936646262891 -0.3931036238129839 0.1112519258563876 0.3415157500584803 0:422 
-0.120885195846673 -0.3240437068382764 0.4542985791438948 0.3320111015194056 0:426 
-0.11454833355426 -0.9624936444073525 0.3636194767942146 0.09523090162387127 0:427 
-0 -0 0 0.518623077073484 0:428 
-0 -0 0 0.04432348507328222 0:430 
-0.05668796646872434 -0.07777602580507062 0 0 0:432 
-0 -0.1128911834457844 0 0 0:434 
-0 -0.6428339345971649 0.2009917306513406 0.5916405715243959 0:437 
-0 -0.1502678590706301 0.2249742156096941 0 0:439 
-0.01813099034239829 -0.4887919050672586 0.3734127196926708 0.7767284476548546 0:440 
-0.2405360395483603 -0.1405380994209611 0 0.1914188271479918 0:443 
-0.1457049546785799 -0 0.3338072445300559 0.21173582788399 0:444 
-0 -0 0 0.3424892577542156 0:445 
-0 -0.07383616873926391 0 0 0:447 
-0 -0 0.1069656259838962 0.1947965608540179 0:452 
-0.3473588764457578 -0.6126145832148696 0.5591968174901225 0.699632483273374 0:453 
-0.3643522775864373 -0.5735671055303341 0.6478618507648769 0.2568531454125154 0:454 
-0.3492022890506123 -0 0.1164284368222208 0.1255504627799266 0:456 
-0 -0 0 0.05426899658108963 0:457 
-0 -0 0 0.004314622371766642 0:459 
-0.1851250468736875 -0.07938043855913002 0.3907704323885425 0 0:461 
-0 -0 0.0180855163599984 0 0:462 
-0.02189632637745695 -0.7048071004817853 0.4637989827514233 0.7434493965796943 0:463 
-0 -0.04521218810078782 0 0 0:465 
-0.1737160581510657 -0.4149976393888213 0.5616213776512988 0.1542428607044213 0:466 
-0.1986172702238687 -0 0.262111546931167 0.06583108035830068 0:470 
-0 -0.706340967749743 0.100023138920954 0.2257444990669847 0:475 
-0.3093924130964494 -0 0.3466602779513578 0 0:476 
-0 -0.06519632508651332 0 0 0:477 
-0 -0.03188636040439301 0 0 0:479 
-0 -0.02726466564240203 0.02845369719304701 0 0:483 
-0 -0 0 0.3022252608505251 0:484 
-0.6024764812528562 -0 -0 0 0:486 
-0.1227305382140441 -0.08900731504528014 -0.1032255834646681 0.09058242960311992 0:489 
-0 -0 -0.05287519950861554 0 0:490 
-0.2149677852686979 -0.01859880101653599 -0.1983005525404123 0.08794160236431134 0:492 
-1.124938299496429 -0.1761357619553421 -0.2097080081405394 0.1128248844766794 0:493 
-0.2139077265448947 -0.2585180266471687 -0.2242318713624259 0.1592775933179978 0:494 
-0 -0 -0.2613383697455094 0.06739930863788092 0:495 
-0.3462583837404925 -0 -0.03860991870226431 0 0:497 
-0.1958866841481131 -0.0603908438242653 -0.1480430036384862 0.0008104001720067505 0:499 
-0.08953378420788083 -0.6751179282292799 -0.8151027807423126 0.5212259837148052 0:500 
-0.3492175854629241 -0 -0 0 0:501 
-0.09354438671206354 -0 -0.1985608573403318 0.07872514733761975 0:502 
-0 -0 -0.1035044209006169 0 0:503 
-0.04692232696076028 -0.07940575788797936 -0.2511143524524342 0.08940409616330222 0:504 
-0.4306479811863949 -0 -0 0 0:505 
-0.2402453407421508 -0.2080673518507367 -0.1882717496523472 0.2036113309273389 0:506 
-0 -0.01811318777509207 -0.1327957147688556 0.1112795996099878 0:508 
-0.0712016814840319 -0 -0 0 0:509 
-0.346894224788861 -0.467439193311345 -0.8503693206949094 0.4701845594953307 0:510 
-0 -0.04547195310438802 -0 0 0:511 
-0.05170565175920087 -0.06586301729492985 -0.2559452299690715 0.05965519925022485 0:512 
-0.4011939099444138 -0 -0.07833418728422714 0.04450319326819491 0:513 
-0.03157850798414748 -0 -0 0 0:515 
-0.220675750499579 -0.2828146973517798 -1.096012167022586 0.5212259837148052 0:516 
-1.597385295684431 -0.1937255604631339 -0.241661366235928 0.1081393038362925 0:517 
-0.02526700872428609 -0 -0 0 0:518 
-0.6240739631448978 -0.2471218858738729 -0.4560520138725066 0.3733011634567436 0:519 
-0.024179230177601 -0.0886684667570343 -0.3860567860766403 0.2095504212240292 0:520 
-0.5251486017730815 -0.05575801302042625 -0 0 0:521 
-0 -0.06995801994783746 -0.06951541829658539 0.06721603014045549 0:522 
-0.09908983002193025 -0.363335364787501 -0.5004769235664323 0.3018016783040506 0:523 
-0.1953389446745047 -0 -0.06333483421400245 0.04461359744842557 0:524 
-0.6286504715395846 -0.04046558030680119 -0.2510955516970887 0.04484580606164931 0:525 
-0.1409075114204065 -0.3506862433491213 -0.4110069577470465 0.04777500574433183 0:526 
-0.04845059282022547 -0.02620398180690027 -0.3485129680300467 0 0:528 
-1.054216148919631 -0 -0 0 0:529 
-0 -0 -0.06060420928878443 0 0:530 
-1.33800698604809 -0 -0.1052452895251343 0 0:532 
-0.152835180110561 -0.1677603197208496 -0.1490216601824067 0.2287175662462001 0:535 
-0.8221461900306481 -0.09401696071732307 -0.3285248859741439 0.09749815205294098 0:536 
-0 -0 -0 0.06438936566319224 0:537 
-0.9926483708572303 -0 -0 0.04574216012879019 0:538 
-0 -0.09506421820812523 -0.08870157302157869 0.2349021506748212 0:539 
-0 -0 -0.2323779351810112 0.3820565211826836 0:541 
-0.2646581309439919 -0.4260722447686188 -0.5611065041953449 0.5212259837148052 0:545 
-0 -0.1612624161536696 -0.6416788952051273 0.4510799997736716 0:546 
-0.7716177317905775 -0.2638935225262432 -0.3512436129451141 0.5212259837148052 0:547 
-0.4677116471989853 -0.6439294140480935 -0.5759743119710024 0.5212259837148052 0:548 
-0 -0.07375225684523519 -0.2071888512282467 0.03911874573427768 0:550 
-0.7036921194822577 -0 -0 0 0:554 
-0.2279555222947452 -0.09311350298331689 -0.111986057686456 0.2020543226688152 0:555 
-0 -0.1338970459679036 -0 0.5212259837148052 0:557 
-0.9831720786113133 -0.2210405082869617 -0.2428704664372905 0.266926684865507 0:558 
-0.4737277193200028 -0.6751179282292799 -1.028662967116752 0.5212259837148052 0:561 
-0.4827488265062234 -0 -0 0 0:562 
-0 -0 -0.1222971688712877 0.1878677605506391 0:565 
-0.5505666261822679 -0 -0 0 0:566 
-0 -0 -0 0.01978549027879476 0:567 
-0.0131197592224649 -0 -0 0 0:569 
-0.6705695775758693 -0 -0 0 0:570 
-0.1167079336866456 -0.5202904795668468 -0.4986661951868509 0.3236934170795452 0:571 
-0.1534073592167619 -0.2227897624190312 -0.6096058341019767 0.2739487292057727 0:573 
-0.07034021529333732 -0 -0 0 0:574 
-0.02545919107379255 -0 -0.2618592701993199 0 0:577 
-0.08975247123348253 -0 -0 0 0:578 
-0 -0.07814125553314062 -0 0 0:580 
-0.03533903423806919 -0.2225257082604217 -0.3116754229747565 0.5212259837148052 0:581 
-0.1174449426030637 -0.0146107251857532 -0 0.4222585252963468 0:582 
-0 -0.09096735548386183 -0.1863008601189308 0 0:583 
-0 -0 -0 0.1324897104354222 0:584 
-0 -0.1689885975337549 -0 0.1465768861034767 0:585 
-0 -0 -0.03896175030732756 0 0:586 
-0.01631820202974077 -0.005280938543311335 -0.1865981522950676 0.2122733979366971 0:587 
-0.609156688359794 -0 -0.2106172977415311 0 0:588 
-0.5849967539758381 -0 -0 0 0:592 
-0.05171377272791362 -0.4114099807865444 -0.6265983879773401 0.5212259837148052 0:593 
-0 -0.06009275532525696 -0.02768180700531318 0.0881986398397234 0:594 
-0 -0 -0 0.1127167278384402 0:595 
-0.6112452232025154 -0 -0 0 0:596 
-0.07097012828807783 -0 -0 0.04158219301690057 0:597 
-0.1966043571349634 -0.6751179282292799 -0.6754501840397593 0.5212259837148052 0:599 
-0.6797800406671485 -0 -0.1313832264972773 0.005481572739314415 0:600 
-1.044922963877141 -0 -0 0 0:604 
-0.08310572871538437 -0 -0 0 0:605 
-1.409385472309823 -0 -0.2792083591340956 0.1544609634982582 0:607 
-0.08697910192529022 -0 -0.180182676730889 0 0:608 
-0.776291893473655 -0 -0.1390897455099101 0 0:610 
-0 -0.09005287685331936 -0.1384048285210609 0.06485392049533084 0:611 
-0.1958805757987921 -0.07717786032987531 -0.0840313722852867 0.06132619461169488 0:613 
-0.9707597733209022 -0.0383200442690982 -0.2535653428456145 0.09088149611139397 0:616 
-0.07708309804145096 -0.02184174600989874 -0.4852455267173856 0.08464052197537394 0:618 
-0.9150419680859811 -0.09517468420324764 -0.5474252291495523 0.3805318427219815 0:619 
-0.07808257011176752 -0.06040448125382167 -0.3566452480152935 0.3245326394959995 0:623 
-0.002865964411645204 -0 -0 0.02314565588607052 0:624 
-0.163648307589052 -0 -0 0 0:625 
-0.04467060473441756 -0.03196372852322578 -0.2084799073924131 0 0:626 
-0.2925506873924956 -0 -0.03559264553002651 0 0:627 
-0 -0.577849219014777 -0.3212909433269855 0.4685099487422648 0:630 
-0.08067355027301205 -0.01859307199234049 -0.01896683939830441 0.0932256270628558 0:634 
-0.3530004408539819 -0.04434555347809429 -0.4308436042328838 0.2142418862811287 0:636 
-0 -0.1594212884562115 -0.1208423793386333 0 0:637 
-0.01533723065495709 -0 -0 0 0:640 
-0 -0.2742154216286812 -0.1860322304634955 0.1077505860890813 0:642 
-0.2341154164509468 -0.1557012575093866 -0.5288414588585019 0.1348966607815064 0:643 
-0 -0 -0 0.006971940357937115 0:644 
-0 -0 -0 0.2415006684206308 0:645 
-0 -0.04372542324522258 -0.01198572652111463 0 0:649 
-0.3303105619064014 -0 -0.08948771617473308 0.0537767035972413 0:652 
-0 -0.1188281969628795 -0 0 0:653 
-0 -0.1587194412743949 -0.1680919084039736 0.0586754364573505 0:660 
-0.1155021387178532 -0 -0 0 0:662 
-0 -0 -0.09423492385142111 0.05094087253931463 0:663 
-0.239106903449321 -0.1636484591600454 -0.05584304526379793 0.1693235682514346 0:668 
-0 -0 -0.05805350544400997 0 0:669 
-0.3603608333555874 -0 -0 0 0:673 
-0.09755394728310124 -0.3545725327661609 -0.3012112959434356 0.2470125211231389 0:675 
-0.5319161541414794 -0.249131948887282 -0.2905179464762472 0.1517390903734747 0:676 
-0.5658644359106144 -0.1092596318490114 -0.2686299283688814 0.1309669447737671 0:678 
-0.03214939945151177 -0.1289804502075103 -0.416434381401798 0.1968687944856876 0:679 
-0.1761813420516166 -0.03975132980528084 -0 0.07470424282698933 0:680 
-0.2542701285587551 -0.2635574715568725 -0.1308141582281679 0.5032450743439132 0:684 
-0 -0 -0.1469397943152945 0.1260908990718023 0:685 
-0 -0.05576451420968436 -0.05794697254110543 0 0:688 
-0.02624946503190274 -0 -0 0 0:693 
-0 -0 -0 0.06081487725152145 0:695 
-0 -0.08316826196584144 -0.04646967238545079 0.01312795972259288 0:697 
-0 -0.1745611416196867 -0 0.2169226407381105 0:700 
-0 -0.02495316467522602 -0 0 0:703 
-0.05003797477003475 -0.1173577254228438 -0.2313065824334921 0 0:705 
-0.1412654338126243 -0 -0 0 0:709 
-0.2901053538678237 -0 -0 0 0:710 
-0 -0.1085136569417261 -0.0001928171834190842 -0 0:712 
-0.0538312698393054 -0.3791429400380722 -0.04311759665881668 -0.2553961790981551 0:715 
-0.1274412820714653 -1.155687909291441 -0.3545138605485908 -0.3786565341159487 0:720 
-0.05737175702630568 -0 -0.1707990786495385 -0.1321470806858014 0:722 
-0 -0.258428083517285 -0 -0 0:724 
-0.02627664884715883 -0.5539117216222362 -0.3355503126451228 -0.1818031901962168 0:725 
-0.1310997377509076 -0.4057065199285529 -0.3459881337100786 -0.3690782709052247 0:727 
-0 -0.02343654017738302 -0 -0 0:728 
-0.02759556747733471 -0 -0.06334769090173728 -0.06976657721522046 0:731 
-0.2092020189266932 -0.5404807001744256 -0.4851295304317933 -0.4181021437399379 0:733 
-0 -0.5702162367410182 -0.05419509768120789 -0.1210608971386027 0:734 
-0.1062499045043365 -0.2496524381668086 -0.5916321418054349 -0.5212259837148052 0:735 
-0.05046767076651968 -0.6101330217874145 -0.4226926596348572 -0.331169149770772 0:739 
-0 -0.300274161633926 -0 -0 0:740 
-0 -0 -0 -0.0009274755324837929 0:743 
-0 -0.136730345292409 -0 -0 0:750 
-0 -0.0009085690835008795 -0.2333285197310644 -0 0:751 
-0.002219926144453232 -0 -0.067718359474277 -0 0:755 
-0 -1.155687909291441 -0.2190827745645192 -0 0:759 
-0.2356948327182173 -0.907070080449663 -0.5577569790409731 -0.4154599437348542 0:765 
-0.04381481639165028 -0.007131140056545266 -0.1130604887420539 -0.1617134336913433 0:767 
-0.2395346528938115 -0 -0.2059774879843655 -0.3434902175350745 0:769 
-0.1930023618270164 -0.1681405013742198 -0.3471722458328338 -0.319186327806018 0:770 
-0 -0.008703227480903278 -0 -0 0:772 
-0.04419964565408931 -0.1278759389191353 -0.2211153537209593 -0 0:775 
-0 -0.2668052244703777 -0 -0 0:777 
-0 -0.2316781518845281 -0 -0 0:779 
-0 -0.2421076881417112 -0 -0 0:781 
-0 -0.3233363232040679 -0 -0 0:784 
-0 -0.1413110531218194 -0 -0.1220316066683987 0:786 
-0 -0 -0.1122033148544044 -0 0:787 
-0 -0.09813816827825612 -0 -0 0:788 
-0.04659096825559438 -0.09011644791895738 -0.1452566442070283 -0.2858855660042219 0:793 
-0.04485634055430984 -0.02538900592518698 -0.08298247284234243 -0 0:795 
-0 -0 -0.04171619735684982 -0.1692131200826524 0:798 
-0 -0 -0 -0.02630238101035654 0:799 
-0 -1.155687909291441 -0.2641210629205673 -0 0:801 
-0 -0.1927093433830948 -0.05197195607725442 -0 0:804 
-0.2395346528938115 -0 -0.2823270040399938 -0.4818499425207293 0:805 
-0 -0.3269618812656003 -0 -0 0:806 
-0.07832927618072849 -0 -0.1321394056432071 -0.1176751352230424 0:807 
-0 -0.5836106941577516 -0 -0.1205657585831009 0:808 
-0.2395346528938115 -0.5086007665102419 -0.5047807115817823 -0.367454877764661 0:812 
-0.08380529825396819 -0 -0 -0.0205660869702056 0:814 
-0 -0.4639576969748776 -0.1495436605788808 -0.1942917139528808 0:815 
-0.2103005777155611 -0.3923748810968443 -0.5621017194647416 -0.281777253944639 0:816 
-0 -0.02225515660256544 -0 -0 0:817 
-0.1687743114842098 -0 -0.303203704584537 -0.425849276911073 0:818 
-0.01494292374143413 -0 -0.08006446222047708 -0 0:820 
-0 -0.3097133713952464 -0.1988479007966165 -0.1495471803358721 0:822 
-0 -0 -0.1058074360916197 -0.03371088505858002 0:823 
-0.1142948475876095 -0.02147819669021338 -0 -0 0:826 
-0 -0.02513353312318808 -0.3657018078102077 -0 0:829 
-0 -1.155687909291441 -0.6834755278266331 -0.0144310153716206 0:830 
-0 -0.1091454297098319 -0 -0 0:835 
-0 -0.3645565310731463 -0.03592489695857605 -0 0:836 
-0 -0.1133721108788056 -0 -0 0:837 
-0.09893641503366536 -0 -0.4534878591337555 -0.3108914329901892 0:838 
-0.1171808368981612 -0 -0 -0.2412824936898268 0:843 
-0.1441162112952802 -0.8927429425851993 -0.716959805542834 -0.1803926825774451 0:845 
-0.06628376398654276 -0.04074596362651454 -0.05441474759262762 -0.03727863810649755 0:851 
-0.2395346528938115 -0.3267719555437081 -0.437322368805248 -0.3812273242557386 0:853 
-0 -1.155687909291441 -0 -0 0:855 
-0 -0.341091832081179 -0 -0.1565572887608454 0:857 
-0.20635851686074 -0 -0.2017341930643458 -0.3397194927908309 0:858 
-0.1824902025922327 -0.2988239792239637 -0.2250281388736745 -0.1694572827433715 0:859 
-0.05034244981074986 -0.2090768703636152 -0 -0.3115311681992595 0:860 
-0 -0.09337260952440099 -0 -0 0:861 
-0 -0.5910870163228628 -0 -0 0:867 
-0 -0.002981837656138808 -0 -0.01574352026501767 0:877 
-0 -0 -0.1992047616062407 -0 0:878 
-0 -0.228887838247911 -0 -0 0:883 
-0 -0.0157296748964088 -0 -0 0:886 
-0 -0.2679374242510942 -0 -0 0:897 
-0 -0.3057880780100113 -0 -0 0:899 
-0 -0 -0 -0.004721182236414556 0:901 
-0.2395346528938115 -0.5264417368938762 -0.617844530368031 -0.5212259837148052 0:904 
-0 -0 -0.1466938478722199 -0 0:906 
-0.1202240905795722 -0 -0 -0.1684363590744814 0:907 
-0 -0 -0.4396597626816099 -0.02457359615246517 0:911 
-0 -0 -0.05657849685816854 -0 0:916 
-0.008489656008868945 -0.01813019450505577 -0.3386959095777309 -0 0:917 
-0 -0.3783359855093533 -0 -0 0:919 
-0.1325337323579903 -0.6395011146857861 -0.6506957170267652 -0.4700741485025056 0:920 
-0 -0.2985934738413454 -0 -0 0:921 
-0.1252461867208599 -0.2873534737067482 -0.1772836822514909 -0.3656000968205995 0:922 
-0.003713372464903205 -0.02411967864404562 -0 -0 0:927 
-0.01829911845066398 -0 -0 -0.08915228501177903 0:928 
-0 -0.3165730355875532 -0.04156862341707872 -0 0:929 
-0.07606971675639157 -0 -0 -0.1942225004956932 0:930 
-0 -0.01778510530856529 -0 -0 0:950 
-0 -0.03455105849348369 -0 -0 0:954 
-0 -0.5331224518082477 -0.04725835262805985 -0 0:960 
-0 -0.04815759183479165 -0 -0 0:961 
-0 -0.2220348870097298 -0 -0 0:963 
-0 -0 -0.04470427105672267 -0 0:968 
-0 -0.008016028892072364 -0 -0 0:970 
-0.2395346528938115 -0 -0.1102713396231402 -0.3359907637382593 0:972 
-0 -0.01459154957423857 -0.05622753895841375 -0 0:973 
-0.1100018062295007 -0 -0 -0.04345276467233023 0:977 
-0 -0 -0.01927970133575066 -0 0:983 
-0.0887826143352969 -0 -0 -0.07699510840276583 0:986 
-0 -0.1252361770389034 -0 -0 0:991 
-0.2395346528938115 -0.4461136390823525 -0.6017126839164687 -0.3788844828566835 0:995 
-0 -0 -0.04589939571418537 -0 0:998 
-0.2395346528938115 -0.6232996924983049 -0.7859426265185484 -0.5212259837148052 0:1000 
-0 -0.1411129405362979 -0 -0 0:1004 
-0 -0.05966506837515541 -0 -0 0:1005 
-0.07032202593431867 -0.6333188795006293 -0.04602535247646287 -0.2213967445252478 0:1006 
-0 -0.05694626658802419 -0 -0.05613691346365778 0:1008 
-0 -0.9045568938911939 -0 -0 0:1009 
-0.209806475540937 -0.563538035135314 -0.4897625297782475 -0.2840900489206343 0:1010 
-0 -0.00687928829820834 -0 -0 0:1011 
-0 -0 -0.08497442756658172 -0.1455652471336938 0:1013 
-0 -0.2807812858256631 -0 -0 0:1014 
-0.1864651241769556 -1.155687909291441 -0.7405146201349206 -0.2811313608816991 0:1015 
-0.1058030772448022 -0.9273794089082269 -0.403970301481918 -0.330907125123526 0:1016 
-0.003887264392490073 -0 -0 -0 0:1018 
-0 -0.4617337810035116 -0 -0 0:1019 
-0 -0.47738867115293 -0 -0 0:1020 
-0.1020608375698463 -0 -0 -0.2851424674306137 0:1023 
-0.01073206446806873 -0 -0.3552715301347646 -0.2028254125767148 0:1026 
-0 -0.05808826519949007 -0.02971766391178126 -0 0:1027 
-0 -0.1293949218368344 -0.1919582627926948 -0.1178333700937446 0:1028 
-0 -0.2277603747077731 -0 -0.02679294288542649 0:1030 
-0 -0 -0.1307626306716018 -0.02964344831585186 0:1033 
-0 -0.421182989859801 -0.398244471690252 -0.09339368222587904 0:1035 
-0 -0 -0 -0.0617896564505756 0:1047 
-0 -0.3239355814499592 -0 -0 0:1049 
-0 -0.317270121901284 -0 -0 0:1050 
-0 -0.1688577498951775 -0 -0 0:1054 
-0 -0.1062183577256094 -0.1324156625187756 -0 0:1056 
-0 -0 -0.2817986739106828 -0.117583670400714 0:1064 
-0.06364463475164017 -0 -0.5240767481700273 -0.3684241758449493 0:1067 
-0.002606313725667966 -0.2638107736747605 -0.3214613875988119 -0.163083570422156 0:1068 
-0.2080490914855883 -0.1844881615602619 -0.7610612550742647 -0.408432771316768 0:1072 
-0.2395346528938115 -0 -0.6221682639722074 -0.4818640794853349 0:1075 
-0 -0.1828728684822841 -0.1267138272918932 -0.1057202190671784 0:1080 
-0 -0 -0.0291282745091058 -0 0:1083 
-0 -0.06061299872116088 -0.05593589028050216 -0.05945576288989968 0:1089 
-0 -0.4455972757586991 -0 -0 0:1094 
-0 -0.1078514480451152 -0 -0 0:1097 
-0.1308507075719187 -0 -0.2892565887195231 -0.03286112756199028 0:1101 
-0.02912783633494504 -0.04774877912048865 -0.1655642406734023 -0.06072783247846428 0:1103 
-0 -0 -0.1135459448193072 -0.1835152789154791 0:1108 
-0 -0 -0.2304613624693004 -0.1834523919225438 0:1110 
